Pesos (dense_6): [[-0.67562854  0.20009077  0.19607325 -0.4534793   0.3588532   0.37351778
   0.0812336   0.4940148   0.5584227  -0.1482919   0.63516265 -0.25309563
   0.54142195 -0.37185958  0.23290093  0.08093609  0.47854602  0.01535953
   0.54580235  0.06087741 -0.7250779  -0.29123127 -0.13069364  0.16070157
   0.275729   -0.05279149  0.68800116  0.19849002  0.47337452  0.09600839
   0.3739422  -0.18462554 -0.18664813  0.7809311  -0.42104077 -0.27877775
  -0.6574248  -0.18406016 -0.10426394  0.9909616   0.51417285  0.08282811
  -0.05004255  0.220392    0.40019658  0.07549627  0.42387113  0.22682445
   0.63054365  0.28502348 -0.65484595  0.04155119 -0.67803687  0.4038912
   0.12318762  0.92732006  0.27076617  0.40243497  0.504441    0.02429232
   0.45638973 -0.09620249 -0.2503481  -0.269411  ]
 [ 0.34113848  0.10051198  0.23823693 -0.09422371 -0.30159947  0.02379461
   0.02986707  0.17776333 -0.48559424 -0.20400892  0.23276165 -0.2682238
   0.11316998 -0.26275864 -0.08480375  0.01345219 -0.12718982 -0.5242622
   0.08585013  0.18296053 -0.11259037 -0.20399544  0.29878572  0.18870644
  -0.40496707 -0.23448817 -0.3287447   0.03562032 -0.09163673  0.14588349
  -0.45103514  0.39580816  0.10575031 -0.25502554  0.32539308  0.21577941
   0.01833325 -0.18469884 -0.40863797 -0.15895042  0.26077008 -0.3798359
   0.07845167 -0.0390896  -0.02424483 -0.46179023 -0.44451606  0.01840192
  -0.34588295  0.07305196  0.08228537 -0.43734455  0.35570884  0.16910382
  -0.39188007 -0.26647228  0.03893418 -0.23499201  0.25435847 -0.16897546
   0.13421293 -0.38161367  0.32586893 -0.25713235]
 [ 0.03099651  0.1339602   0.18068428 -0.08135958  0.03615596  0.40493122
  -0.07255689  0.0651811   0.22711259 -0.28316227 -0.04145743  0.0349271
   0.163472    0.32967392  0.07844628 -0.09892517  0.01612885  0.37738797
   0.161493    0.14501925 -0.14723961  0.06816647  0.4063969   0.05995334
  -0.29352066 -0.11792671 -0.04239156  0.07351646  0.00842913  0.4975523
   0.15689999  0.18059756 -0.08797327 -0.15820889 -0.04713727 -0.3540417
   0.18092279 -0.04098346 -0.06864669  0.01015034 -0.06165444 -0.18712325
  -0.01647571 -0.051046    0.18189529  0.00363679  0.42194948 -0.4684135
   0.19848013  0.06858936 -0.09808364  0.31618443 -0.02316501  0.07646796
   0.02166354  0.03210546  0.05169924 -0.03761856  0.09544706 -0.01267894
   0.17051496  0.33451524  0.01182825 -0.27506843]
 [ 0.37774524 -0.22677976 -0.33398944 -0.52186316  0.27415153  0.3765242
   0.3709296   0.48887753 -0.01167083 -0.10743061  0.117705   -0.354385
  -0.55115086 -0.18305948 -0.38976336 -0.21790223  0.23418981 -0.2837576
  -0.4783713   1.0520195  -0.08144361 -0.57111347 -0.21032155 -0.14122336
  -0.40332517 -0.88338214 -0.19412264 -0.5405944   0.24373391  0.06922123
  -0.223662    0.23497908 -0.07937874 -0.2286292  -0.23866126  0.40243253
   0.09905008  1.15692     1.3943831  -0.4747628   0.24165171  0.46282643
  -0.7240521  -0.28015622 -0.16555192  0.7633336  -0.30790278  0.27033618
   0.06347597 -0.21403058  0.6623366   0.21628201 -0.27887824  0.00922963
   0.02157236 -0.13723181  0.31586173  0.34348395 -0.22328621  0.36361623
  -0.13955246 -0.30726534  0.40266466 -0.44908914]
 [ 0.2359286  -0.41547313 -0.45394316  0.11485787  0.22498111  0.23513533
   0.4260318  -0.25415304  0.508306   -0.06436486 -0.26642913  0.13483222
  -0.01274204 -0.17460227 -0.13576798 -0.2353381  -0.23151812  0.01189537
  -0.12115264 -0.2808683  -0.13522191  0.06241276  0.20082834 -0.4171064
   0.29666632 -0.06386653  0.19181249  0.22068073 -0.21639778  0.3532675
   0.7338422  -0.14705554 -0.2856978   0.01984385  0.01040505  0.17870061
   0.16552377 -0.18816265 -0.1868459   0.30692124 -0.12742595 -0.2122157
   0.31066096 -0.07125986 -0.40261146 -0.07116541  0.20680842  0.0589495
  -0.19793151 -0.54617304  0.19628511  0.22970033  0.01369644  0.00443206
  -0.36790055  0.06155728 -0.34924996 -0.09018722 -0.4333972  -0.3854755
  -0.15402825 -0.0421258   0.09679999 -0.37500745]
 [ 0.1932003  -0.27748978  0.05623938  0.3299183  -0.32219374 -0.1856523
   0.6442119  -0.10906787  0.17398205  0.0754975  -0.3187419   0.05113889
  -0.4547031   0.2448274  -0.3865673  -0.3882232  -0.21799092 -0.10436001
  -0.30588     0.03283803  0.5075965   0.24617752  0.3397701  -0.38798064
   0.4974883  -0.17553096 -0.6466678   0.4076475  -0.24206376 -0.12093985
   0.28980136  0.15168169  0.51120645 -0.3007673   0.59182304  0.16191807
   0.13813686  0.04621659 -0.04440987 -0.3045279  -0.4385489  -0.34464505
   0.25034186  0.4252564  -0.370886    0.13985096 -0.4436225  -0.0958379
  -0.52795106 -0.430613    0.16536668 -0.4166089   0.37885496  0.6896624
  -0.04479264 -0.22773814 -0.1463895  -0.4333793  -0.26508504 -0.10500951
  -0.28801364  0.09854001  0.06970161  0.06666867]
 [-0.52461785  0.2570599  -0.00275595 -0.01173158  0.20225394  0.08249944
   0.5891054   0.26786724  0.34634718  0.18885598  0.31885     0.41172272
  -0.3372178   0.11871766 -0.01606988  0.10553892  0.50356454  0.10632169
   0.2285981   0.10533655 -0.37062943  0.2822163   0.17563488 -0.22505714
   0.22025359  0.1350785  -0.4365452   0.4234887   0.53769237 -0.06981621
   0.7318553  -0.48409548 -0.14223006 -0.5721601  -0.24094686 -0.16845173
   0.21227087  0.3432353  -0.2446557  -0.23515552  0.11926711 -0.3726684
   0.2814251  -0.5883508  -0.48068473 -0.76715183  0.11730213  0.30884942
  -0.4017438  -0.39422297 -0.13443112  0.16367245 -0.17594947  0.1610527
  -0.77164125 -0.32132572 -0.58153033  0.25275788  0.08432602 -0.41645882
   0.12559849  0.33815178 -0.49724525 -0.47651035]]
Bias (dense_6): [-0.32809073  0.04897845  0.10753777 -0.01981655  0.43823984  0.25350437
  0.48900774  0.36306226  0.10260911  0.13681002  0.4149617   0.4453748
 -0.09012396  0.00091918 -0.06396606 -0.06519037  0.3702067   0.2506935
  0.34385836  0.2732992  -0.17282662  0.3223058   0.11976595 -0.11395663
  0.28810352  0.23253077 -0.07927871  0.3231464   0.35437682 -0.10184652
  0.26088256 -0.1298934   0.10238656 -0.03658807 -0.25908118 -0.14948794
 -0.08680534  0.20682462 -0.10443874  0.0233803   0.15214622 -0.15546997
  0.39093217 -0.1053213  -0.15266877 -0.05405337 -0.050753    0.3880888
 -0.1407405  -0.0634625  -0.17324902  0.19392964 -0.364822    0.30136997
 -0.2190306   0.00866404 -0.29995388  0.32305747  0.11834788 -0.24344327
  0.09675745  0.25791457 -0.28627798 -0.24877092]
Pesos (dense_7): [[ 0.48643887 -0.14601554  0.5332123  ... -0.39917812 -0.09413262
   0.33656126]
 [-0.0406028   0.03316573 -0.15168537 ...  0.44074893  0.00074212
   0.15669511]
 [ 0.06097676 -0.3484948  -0.47596192 ...  0.15518405  0.12706695
  -0.0805997 ]
 ...
 [-0.07561745  0.41289338 -0.35951617 ...  0.1740188  -0.36816773
  -0.4294166 ]
 [ 0.13066985 -0.33161744  0.6078549  ... -0.5497642   0.18724576
   0.58729726]
 [-0.07460853 -0.2668529   0.11930197 ... -0.08717688  0.09258017
   0.16861877]]
Bias (dense_7): [-0.2119139  -0.09185748 -0.17377718  0.1609604  -0.15148804  0.3428627
  0.1627984  -0.13507906  0.33517367  0.04958503  0.01559456 -0.17116953
  0.0897127   0.2870699   0.1801468  -0.1174174   0.26463816  0.12419067
  0.20589322  0.26835662  0.00921751  0.04495111 -0.1313318   0.01318832
 -0.25849935  0.24104443 -0.17352015 -0.16163194  0.10919965  0.26465917
 -0.07358701 -0.12703414]
Pesos (dense_8): [[ 0.27720588  0.6223555  -0.8424034   0.2620762 ]
 [-1.2445661  -0.13705724  0.26496622  0.7520214 ]
 [ 0.30787867  1.2576653  -0.19939876 -1.803325  ]
 [ 0.36767867 -0.8509218   0.27461314 -0.15856746]
 [ 0.5028107   0.721801   -0.6347452  -0.6607832 ]
 [ 0.41227812 -1.1211431  -0.5546795   0.52828044]
 [ 1.3184059  -0.36583754  0.07018833 -1.3694432 ]
 [ 0.38590723  0.8987328   0.39709935 -1.4906453 ]
 [ 0.3815821  -1.6670232  -1.1329701   0.40095323]
 [-0.6315624   0.13755506 -1.2802876   0.5265012 ]
 [-0.6586079  -0.6076413   0.24938178 -0.01395035]
 [-1.1918399   0.42940837  0.15289597  0.57101804]
 [ 0.3986837   0.34161976 -0.35532984 -0.78972065]
 [ 0.14290544 -0.81989086 -1.134949    0.57877195]
 [ 1.1190622  -0.74051696 -0.30810672 -1.2620412 ]
 [-0.76793325 -0.23025462  0.10455076  0.72906905]
 [ 0.36057565 -1.3338825  -0.62667334  0.12310689]
 [ 0.06406389  0.12689939  0.42674434 -1.0008829 ]
 [-0.0910283  -1.1516812   0.6572387   0.12599519]
 [ 0.46155438 -1.0458622   0.32037383  0.0152499 ]
 [-0.03523688  0.06221003  0.31865537  0.483464  ]
 [ 0.28837916  0.31434798  0.2796878  -0.5419107 ]
 [-1.2563683   1.2964449  -1.0144526  -0.6702819 ]
 [ 0.34625393  0.50382143  0.28195074 -0.7778437 ]
 [-1.107528    0.7096991  -0.49389988  0.6150533 ]
 [ 0.5483315  -1.4550693  -0.5516033  -0.17030162]
 [-0.5137611   0.46720767  0.3053258   0.49058497]
 [ 0.4592394   0.8793956  -0.7606544  -0.65065515]
 [-0.73981476 -0.2555906   0.45856687  0.52380985]
 [ 0.18318085 -1.3702577  -1.0902399   0.7625999 ]
 [-0.019654   -0.36376533  0.1555053   0.21326824]
 [-0.6845016   0.66857123 -1.0658116   0.69608647]]
Bias (dense_8): [ 0.02204054 -0.26464087 -0.3026419   0.08834215]
