Pesos (dense_3): [[-2.16805965e-01  1.38349429e-01  2.15324253e-01  3.38315427e-01
   1.24623172e-01  5.85619330e-01  6.06900573e-01 -5.49662411e-01
  -8.19892623e-03 -3.19272906e-01  1.08389497e+00  4.89536226e-01
  -1.70204103e-01  4.54727381e-01 -5.86376429e-01 -4.85170819e-02
   9.37658921e-02  4.79776353e-01  3.17098275e-02  1.43919691e-01
   5.81081323e-02 -6.68686405e-02  8.59368980e-01  3.11778337e-01
   4.40752625e-01 -6.56452477e-01 -7.72249818e-01 -4.65288043e-01
   1.68376505e-01 -4.59927658e-04  4.14955974e-01  1.11664332e-01
   3.46094812e-03  1.47606894e-01 -4.20203269e-01 -5.46533942e-01
   3.46188366e-01 -2.63518482e-01 -1.84676617e-01  3.11683029e-01
  -1.61643833e-01  6.34032041e-02  1.71682164e-01  2.21498087e-01
  -2.75952131e-01  4.30500090e-01 -1.61916479e-01  7.20387399e-02
  -1.72605783e-01  4.14134622e-01 -6.54677391e-01  3.82600963e-01
   1.89561605e-01  1.28078014e-01 -6.28180206e-01  4.53824729e-01
   2.40414709e-01  4.33038712e-01 -8.88700262e-02 -4.05196905e-01
  -3.76341313e-01  4.94422048e-01 -4.44310382e-02  2.68147558e-01]
 [-1.85051754e-01 -1.75893605e-01  4.08667959e-02 -2.62739480e-01
   1.71073943e-01  2.23025829e-01 -3.66113752e-01 -7.28010386e-02
   1.02252491e-01  1.78115144e-01 -1.57714769e-01 -6.13669157e-02
  -1.87411189e-01  2.57394046e-01  2.51716673e-01 -4.87831235e-01
  -5.12840211e-01 -5.85484087e-01 -3.36198419e-01 -1.77199934e-02
  -1.54657662e-01 -3.16303633e-02 -1.99252799e-01 -2.18467578e-01
   1.54113352e-01  2.57002771e-01  2.22918034e-01  7.50649720e-02
   4.88763824e-02  5.70020489e-02 -8.38717595e-02 -5.08511186e-01
   3.94914687e-01  2.07730576e-01 -1.53359503e-01  1.14230298e-01
  -6.30190317e-03 -1.83253467e-01  3.40832144e-01 -2.49541223e-01
  -1.67761981e-01 -1.49651587e-01 -1.43110782e-01  2.15869825e-02
   6.33179992e-02  7.64413625e-02 -1.33240461e-01 -1.20556705e-01
   1.44012928e-01  1.92809254e-01  1.12625197e-01 -4.47802514e-01
  -3.50155562e-01  2.53321648e-01 -1.24687739e-01 -4.04486209e-01
  -4.93380606e-01 -1.52872175e-01  1.14834033e-01  3.72241974e-01
   2.52203345e-01 -2.12406486e-01 -2.00818673e-01 -3.78200024e-01]
 [ 9.55814123e-03 -2.20525339e-01 -3.89304459e-01  1.21597620e-02
   1.22714706e-01 -7.02024326e-02  4.23996188e-02 -2.99473643e-01
  -3.82635087e-01 -3.50393534e-01  7.66296834e-02 -1.09350517e-01
  -6.19236790e-02  2.05412284e-02  7.21108317e-02  3.07800442e-01
  -2.41812751e-01  5.80938533e-03  4.84135658e-01  7.47995004e-02
   4.90715429e-02 -1.37792066e-01  4.44448479e-02  2.68069711e-02
  -4.77044620e-02 -1.17154188e-01 -9.98172536e-02 -1.26619294e-01
  -1.91748723e-01 -3.48900318e-01 -8.79371911e-02 -1.12336569e-01
   1.87638979e-02 -3.71577404e-02  2.73652375e-01 -1.62510619e-01
  -3.06348473e-01  9.09360200e-02  1.82194710e-01  3.09329946e-02
   9.72212702e-02 -4.29084674e-02  1.23846367e-01  1.02859132e-01
   1.41296759e-01  1.30201235e-01  1.32505268e-01 -4.63367179e-02
  -2.12297179e-02  2.62698792e-02  1.28611088e-01  1.19739398e-02
   5.37882686e-01 -1.61653176e-01 -9.93635803e-02  1.88615873e-01
   2.27329712e-02  1.01201516e-02 -4.93602194e-02  2.12580532e-01
  -5.43525890e-02  8.93638432e-02  4.91181225e-01  6.62925094e-02]
 [-7.86653340e-01  1.32122161e-02  4.24317390e-01 -4.12918180e-01
   2.69281119e-02  5.58386385e-01 -8.09105635e-01  2.16948017e-02
  -1.06781833e-01  1.94541231e-01 -4.97830272e-01 -3.23144794e-02
  -7.09223628e-01 -5.17147720e-01  6.38427556e-01 -8.69046152e-02
  -6.14059031e-01  3.16822022e-01  1.60909846e-01 -1.62586540e-01
   5.41554034e-01 -6.50456905e-01 -4.75369304e-01 -3.79948884e-01
   7.47991279e-02 -2.33338386e-01 -1.65291724e-03  8.97218883e-01
   3.52978528e-01 -1.43513620e-01 -3.37467343e-01  5.13281703e-01
  -1.56708762e-01 -5.26021831e-02  4.20288861e-01  6.30201697e-02
   4.62903678e-01 -7.07281649e-01  2.62084931e-01  2.21516266e-01
   2.60024279e-01 -1.57559514e-01  3.87910545e-01 -1.71290547e-01
   1.32748365e-01  4.70986813e-01  4.73398082e-02  1.34791350e+00
  -6.12866461e-01  2.78037995e-01  2.20572740e-01 -2.91998327e-01
   2.83219218e-01  3.51736069e-01 -1.75892338e-01  1.13020360e-01
   1.06153868e-01  3.09408844e-01 -2.18328699e-01  6.60297126e-02
  -2.40442336e-01 -4.93589580e-01  2.34513491e-01  9.76209521e-01]
 [ 1.14690520e-01 -1.33435726e-01  2.30242565e-01  5.75085819e-01
  -3.79009992e-01 -3.77391994e-01  3.28114510e-01  1.04469925e-01
   7.57196695e-02 -1.32110983e-01  1.37965113e-01  4.88698989e-01
   2.36182846e-02 -2.87778139e-01  1.79847941e-01 -3.12755108e-02
   5.52217126e-01 -1.60086602e-01  1.41730994e-01 -2.15082571e-01
  -2.04064623e-02  8.29825364e-03 -7.44067878e-02 -3.53687048e-01
  -2.62633204e-01  3.08704019e-01  9.46781933e-02  2.50637680e-01
  -2.40016237e-01  2.04250246e-01 -1.48586556e-02 -3.35555822e-01
  -3.04727852e-01 -4.44076866e-01  1.85052186e-01 -1.03212893e-01
  -1.65276408e-01  3.69521260e-01 -3.97788025e-02  2.10008547e-01
  -2.51623005e-01 -1.17199145e-01 -2.63254523e-01 -1.38128847e-01
   5.99029399e-02  1.84162125e-01 -3.75236422e-01  1.30684495e-01
   3.94928962e-01 -3.10058326e-01  1.55564979e-01  7.63129175e-01
   1.99552119e-01 -8.10824558e-02  1.28693879e-01 -8.78937989e-02
   2.19925568e-02  2.27775618e-01  2.39185646e-01  2.03852039e-02
   8.22180137e-02 -5.94949603e-01 -2.15944603e-01 -3.02906364e-01]
 [ 1.11953445e-01  8.05667713e-02 -2.20514268e-01 -2.35484481e-01
  -4.10483897e-01 -4.11205560e-01 -5.63187063e-01  2.98971444e-01
   5.29305600e-02  8.90667364e-02  4.87726331e-02  3.52117896e-01
   3.98359075e-02 -1.94077089e-01  3.61772120e-01 -3.05543863e-03
   1.07687272e-01 -2.39951834e-01 -2.60314733e-01 -4.25729781e-01
  -7.24631101e-02  5.59311472e-02  1.00797616e-01 -3.28241855e-01
  -5.07393293e-02  1.71738327e-01  4.83090758e-01  3.35589409e-01
  -9.13648084e-02 -3.18292454e-02  8.69350374e-01 -1.26356840e-01
  -3.42728198e-01 -2.34346818e-02 -6.71810061e-02  6.48634851e-01
  -2.06578463e-01  4.32930291e-01 -6.95220307e-02 -2.99868196e-01
   6.10073395e-02 -1.84819505e-01 -2.59843856e-01 -3.57024789e-01
   2.18840435e-01  2.79628299e-02 -4.28071879e-02 -1.16451070e-01
   3.12796324e-01 -4.58018690e-01  2.25033402e-01  3.63708764e-01
  -3.04999202e-01 -2.73278743e-01  1.64791495e-01 -3.51004362e-01
  -5.82757294e-01 -3.31697017e-01  1.56097174e-01  2.58764327e-01
   1.36824325e-01 -4.27590460e-01  1.86984643e-01 -1.14313783e-02]
 [ 2.52925068e-01  2.13917524e-01  1.70754552e-01  3.76928806e-01
   1.65031239e-01  2.49075636e-01  2.82849491e-01 -7.80404806e-02
   1.03275646e-02 -4.89350796e-01 -5.47426224e-01  5.82932770e-01
   3.65537763e-01  1.83418319e-01 -2.12609500e-01  2.25957587e-01
   3.29539508e-01 -3.65532249e-01  2.26151317e-01 -2.90576974e-03
   4.94990587e-01 -2.72234559e-01 -2.21082270e-01 -4.89173859e-01
   6.16755068e-01 -1.30749270e-01 -1.78479940e-01 -5.59471026e-02
  -6.89151168e-01  4.74204153e-01 -1.85917512e-01 -7.25825608e-01
  -2.61123300e-01 -2.85644501e-01 -3.21310669e-01 -1.48297921e-01
   4.18465108e-01 -1.77682545e-02 -3.85614812e-01  2.40900069e-01
   4.67242062e-01 -5.38796246e-01  3.91733408e-01 -7.46196210e-02
   2.23392040e-01  2.28845984e-01 -5.52699506e-01 -2.08895630e-03
  -2.16953531e-01  9.64301676e-02 -3.21884543e-01  7.13211238e-01
  -1.76641703e-01 -4.85915571e-01 -2.65893787e-01 -5.22345662e-01
   3.65098089e-01  2.65352041e-01  2.75523901e-01 -1.10381067e-01
   3.97933960e-01 -4.43318367e-01  2.87076443e-01 -6.08706295e-01]]
Bias (dense_3): [ 0.3050006  -0.16817683  0.23251313  0.24912757  0.12472748  0.27187315
 -0.00853199 -0.0794837   0.08843765 -0.22738677 -0.00740832  0.35619885
  0.3652171   0.2841356  -0.20241824  0.30143726  0.28768203  0.32670218
  0.0820571  -0.24424651  0.44586727 -0.11956974 -0.00093821 -0.262385
  0.5065872  -0.2774001  -0.1976077   0.03652457 -0.09138043 -0.05577409
  0.14866212 -0.12258651 -0.03207291 -0.12865235 -0.19725649 -0.14366584
  0.22328438  0.34592575 -0.12853925  0.40455863  0.30698913 -0.1630081
  0.3487889  -0.00224763  0.12961671  0.38174403 -0.31293714  0.03991421
  0.07952739  0.21039468 -0.2422402   0.32288668  0.09955544 -0.06454202
 -0.21868363 -0.12566322  0.22955808  0.45265487  0.31627306 -0.25975454
 -0.17660192 -0.22343962  0.15049045 -0.04511629]
Pesos (dense_4): [[-0.4158305  -0.24024646  0.3106429  ...  0.130544    0.23566212
   0.18706341]
 [-0.08464832 -0.1293518   0.10469036 ...  0.18055658 -0.21710591
  -0.09125575]
 [ 0.22832176 -0.46578112  0.45553628 ...  0.3496336   0.16882664
  -0.0620801 ]
 ...
 [ 0.56127864  0.29234856 -0.26932007 ... -0.29267436 -0.12970865
   0.09206432]
 [-0.18331446 -0.06053567  0.13591301 ...  0.4132438   0.3270496
   0.22789614]
 [ 0.13726443  0.51173747 -0.13955179 ...  0.2923815  -0.53938246
  -0.84122825]]
Bias (dense_4): [-0.24709421 -0.17540838  0.21912856 -0.01755956  0.01949067  0.09534036
 -0.04121363 -0.03351377 -0.03121963 -0.01063288  0.03588065 -0.02968813
 -0.16744027 -0.00874271  0.19290173  0.05714436 -0.02175357 -0.2756016
 -0.07423893  0.10156454  0.32660502 -0.15029329  0.22132705  0.38930598
  0.14452437  0.08652186 -0.00662389  0.11781041  0.4578298   0.08017655
  0.3589277   0.19892727]
Pesos (dense_5): [[-1.41029668e+00  7.74832308e-01 -2.86036342e-01  4.47559953e-01]
 [ 1.65404782e-01  7.21625447e-01 -9.49113369e-01 -5.25252819e-01]
 [ 4.66359556e-01 -9.76271272e-01  1.96853235e-01 -4.64853179e-03]
 [ 6.96185827e-01 -2.74162799e-01 -1.54674840e+00 -6.20284200e-01]
 [-5.53616881e-01 -1.34582210e+00 -2.23621190e-01  5.10680616e-01]
 [ 1.41055122e-01  3.47428143e-01 -1.54419494e+00  3.40580910e-01]
 [-4.98960793e-01 -1.15408130e-01 -1.03805542e+00  9.11654472e-01]
 [-6.54835582e-01  6.07589245e-01 -8.95544767e-01 -5.87572157e-02]
 [ 2.96910882e-01 -7.19446763e-02 -2.01825052e-01 -3.44273806e-01]
 [ 3.68477613e-01  5.96944451e-01  2.36703575e-01 -7.10699141e-01]
 [-1.10634363e+00 -3.33601922e-01  4.78780150e-01  1.09634027e-01]
 [-2.39746854e-01 -3.20870996e-01  8.20735395e-02  2.26495042e-01]
 [-1.16152823e+00  8.57567370e-01 -3.09613589e-02 -1.42392844e-01]
 [ 1.07399352e-01  1.07512809e-01  1.67710438e-01  3.66061091e-01]
 [ 5.05846262e-01 -8.05357516e-01  6.29479945e-01 -6.50460660e-01]
 [-1.62795201e-01 -3.38823527e-01 -1.81467164e+00  3.16551149e-01]
 [-2.83998162e-01 -1.00714520e-01 -1.49988085e-01  1.77778944e-01]
 [ 4.19114739e-01  1.08515561e+00  7.98504353e-02 -2.05141759e+00]
 [-1.13332307e+00  4.56580967e-01  4.12480384e-01  3.49571109e-01]
 [ 7.49591947e-01 -1.14927244e+00  2.94057745e-02 -3.90999258e-01]
 [ 1.79848385e+00 -1.80598184e-01 -1.98702216e-01 -1.67552996e+00]
 [-1.48749101e+00  3.39008152e-01  1.01035081e-01  3.59770566e-01]
 [ 4.89187181e-01 -6.62733436e-01  4.10347879e-01 -3.06024790e-01]
 [ 5.68252563e-01 -1.74100780e+00  5.77933490e-02  6.47186816e-01]
 [ 3.94511133e-01 -1.18777566e-01  4.37382877e-01 -4.54574704e-01]
 [-4.08747047e-01 -8.52783024e-01  2.14680374e-01  5.17103374e-01]
 [-3.48012835e-01  3.79347414e-01 -1.23307240e+00  4.49314415e-01]
 [-4.05377895e-01 -3.47685814e-01  6.97530329e-01 -1.09574407e-01]
 [ 4.76511687e-01 -1.18121946e+00 -1.28248024e+00  5.49396396e-01]
 [ 2.20536143e-01  6.46838993e-02 -2.65596718e-01 -7.33588457e-01]
 [ 7.50390291e-01 -1.90583444e+00 -1.34612942e+00  3.67385298e-01]
 [ 1.11937104e-03 -1.62497294e+00  1.73749745e-01  6.58436060e-01]]
Bias (dense_5): [ 0.10805808 -0.29120663 -0.26708615  0.06666222]
